[0.50227455]
[-0.27889279]
[-0.14111334]
[-0.12270223]
[2.02907247]
[2.34277497]
[-0.00248177]
[-0.62332792]
[0.20829359]
[-2.46779796]
[-0.77443342]
[-0.2114558]
[-1.64662025]
[-0.23568105]
[0.16737821]
[-0.19177082]
[-0.07946842]
[1.70953117]
[-0.8102516]
[-1.4787186]
[0.71148269]
[1.55102166]
[-2.05799635]
[0.18597023]
[0.56749818]
[1.38088498]
[1.35347688]
[0.16447323]
[0.17848681]
[1.07394958]
[-1.61477928]
[-0.35760962]
[0.5174157]
[-0.05989739]
[-0.22541998]
[3.01505717]
[-1.38391711]
[0.40631603]
[1.25449003]
[-0.56496122]
[-1.18268577]
[0.02286148]
[-1.80697884]
[0.86430224]
[-0.40897433]
[-0.33158958]
[0.44874072]
[0.40732975]
[-0.95690012]
[0.65808945]
[0.03700306]
[1.38113445]
[-0.18576645]
[1.67075385]
[-0.89427624]
[1.15692717]
[1.07835859]
[1.83824198]
[0.13739429]
[0.08307755]
[-1.1626608]
[0.55519031]
[1.42613226]
[-0.29381135]
[-1.47946118]
[-1.23876754]
[-0.40626933]
[-1.20537141]
[-0.19736337]
[1.52977566]
[-0.54284097]
[3.07162087]
[2.73289548]
[-0.65771146]
[-0.65506847]
[-0.03268758]
[0.70241496]
[1.5786088]
[-2.44667932]
[0.96586806]
[0.17184467]
[0.6779775]
[1.85536714]
[0.75029981]
[0.7547839]
[1.10904527]
[-0.41133596]
[-0.46372812]
[-1.34083062]
[-1.1919415]
[-1.33843288]
[-0.63031565]
[-0.25600819]
[1.44138477]
[0.17097771]
[-0.64555037]
[2.16030768]
[-1.03535959]
[-1.66411092]
[0.31306039]
[2.33464691]
